<?xml version="1.0"?>
<opencv_storage>
<cascade>
  <stageType>BOOST</stageType>
  <featureType>HAAR</featureType>
  <height>24</height>
  <width>24</width>
  <stageParams>
    <boostType>GAB</boostType>
    <minHitRate>9.9500000476837158e-01</minHitRate>
    <maxFalseAlarm>5.0000000000000000e-01</maxFalseAlarm>
    <weightTrimRate>9.4999999999999996e-01</weightTrimRate>
    <maxDepth>1</maxDepth>
    <maxWeakCount>100</maxWeakCount></stageParams>
  <featureParams>
    <maxCatCount>0</maxCatCount>
    <featSize>1</featSize>
    <mode>BASIC</mode></featureParams>
  <stageNum>20</stageNum>
  <stages>
    <!-- stage 0 -->
    <_>
      <maxWeakCount>8</maxWeakCount>
      <stageThreshold>-7.3569566011428833e-01</stageThreshold>
      <weakClassifiers>
        <_>
          <internalNodes>
            0 -1 86 1.3223057612776756e-02</internalNodes>
          <leafValues>
            -6.5921789407730103e-01 7.3833900690078735e-01</leafValues></_>
        <_>
          <internalNodes>
            0 -1 128 2.8334890957921743e-03</internalNodes>
          <leafValues>
            -5.1171201467514038e-01 7.0351290702819824e-01</leafValues></_>
        <_>
          <internalNodes>
            0 -1 99 7.0134140551090240e-03</internalNodes>
          <leafValues>
            -4.1761234402656555e-01 6.5710121393203735e-01</leafValues></_>
        <_>
          <internalNodes>
            0 -1 91 -5.3325081244111061e-03</internalNodes>
          <leafValues>
            6.2189811468124390e-01 -4.6446460485458374e-01</leafValues></_>
        <_>
          <internalNodes>
            0 -1 56 -4.7027976252138615e-03</internalNodes>
          <leafValues>
            6.6605651378631592e-01 -4.4430214166641235e-01</leafValues></_>
        <_>
          <internalNodes>
            0 -1 40 1.0647352784872055e-02</internalNodes>
          <leafValues>
            3.1329375505447388e-01 -8.8254731893539429e-01</leafValues></_>
        <_>
          <internalNodes>
            0 -1 150 -4.8545636236667633e-03</internalNodes>
          <leafValues>
            5.6555080413818359e-01 -4.3546718358993530e-01</leafValues></_>
        <_>
          <internalNodes>
            0 -1 59 -7.2323326021432877e-03</internalNodes>
          <leafValues>
            8.3158075809478760e-01 -2.7728950977325439e-01</leafValues></_></weakClassifiers></_>
    <!-- stage 1 -->
    <_>
      <maxWeakCount>10</maxWeakCount>
      <stageThreshold>-1.1817132234573364e+00</stageThreshold>
      <weakClassifiers>
        <_>
          <internalNodes>
            0 -1 42 2.9138198122382164e-02</internalNodes>
          <leafValues>
            -2.9779410362243652e-01 8.2972580194473267e-01</leafValues></_>
        <_>
          <internalNodes>
            0 -1 119 8.0875270068645477e-03</internalNodes>
          <leafValues>
            -3.6920547485351563e-01 6.6605091094970703e-01</leafValues></_>
        <_>
          <internalNodes>
            0 -1 90 -1.8248632550239563e-02</internalNodes>
          <leafValues>
            7.0139962434768677e-01 -3.6562296748161316e-01</leafValues></_>
        <_>
          <internalNodes>
            0 -1 190 -6.6951471380889416e-03</internalNodes>
          <leafValues>
            8.0324172973632813e-01 -2.3593592643737793e-01</leafValues></_>
        <_>
          <internalNodes>
            0 -1 0 6.1406780034303665e-02</internalNodes>
          <leafValues>
            -2.4710245430469513e-01 7.6643031835556030e-01</leafValues></_>
        <_>
          <internalNodes>
            0 -1 116 3.1698192469775677e-03</internalNodes>
          <leafValues>
            2.9813417792320251e-01 -6.9822376966476440e-01</leafValues></_>
        <_>
          <internalNodes>
            0 -1 34 8.5054626688361168e-03</internalNodes>
          <leafValues>
            -2.7832752466201782e-01 7.3332947492599487e-01</leafValues></_>
        <_>
          <internalNodes>
            0 -1 61 -1.1390331387519836e-01</internalNodes>
          <leafValues>
            -9.2562592029571533e-01 2.2128684818744659e-01</leafValues></_>
        <_>
          <internalNodes>
            0 -1 209 -6.1537534929811954e-03</internalNodes>
          <leafValues>
            7.0712798833847046e-01 -2.7927824854850769e-01</leafValues></_>
        <_>
          <internalNodes>
            0 -1 108 3.7913024425506592e-03</internalNodes>
          <leafValues>
            3.7213248014450073e-01 -5.1313847303390503e-01</leafValues></_></weakClassifiers></_>
    <!-- stage 2 -->
    <_>
      <maxWeakCount>11</maxWeakCount>
      <stageThreshold>-9.6502256393432617e-01</stageThreshold>
      <weakClassifiers>
        <_>
          <internalNodes>
            0 -1 105 1.9161812961101532e-02</internalNodes>
          <leafValues>
            -2.9199999570846558e-01 7.5848031044006348e-01</leafValues></_>
        <_>
          <internalNodes>
            0 -1 98 2.2096022963523865e-02</internalNodes>
          <leafValues>
            -3.3792212605476379e-01 7.4325531721115112e-01</leafValues></_>
        <_>
          <internalNodes>
            0 -1 26 2.8536967933177948e-02</internalNodes>
          <leafValues>
            -2.5468221306800842e-01 8.2080495357513428e-01</leafValues></_>
        <_>
          <internalNodes>
            0 -1 164 -2.1445302292704582e-02</internalNodes>
          <leafValues>
            7.5719672441482544e-01 -2.2252219915390015e-01</leafValues></_>
        <_>
          <internalNodes>
            0 -1 64 5.9449419379234314e-02</internalNodes>
          <leafValues>
            -2.8516882658004761e-01 6.1390239000320435e-01</leafValues></_>
        <_>
          <internalNodes>
            0 -1 16 1.0989619418978691e-02</internalNodes>
          <leafValues>
            -2.2787255048751831e-01 7.1103173494338989e-01</leafValues></_>
        <_>
          <internalNodes>
            0 -1 205 2.3199038114398718e-03</internalNodes>
          <leafValues>
            2.0645724236965179e-01 -9.1304510831832886e-01</leafValues></_>
        <_>
          <internalNodes>
            0 -1 37 1.1509569361805916e-02</internalNodes>
          <leafValues>
            -2.1997316181659698e-01 7.6987826824188232e-01</leafValues></_>
        <_>
          <internalNodes>
            0 -1 38 -7.0486022159457207e-03</internalNodes>
          <leafValues>
            6.3887268304824829e-01 -2.2039406001567841e-01</leafValues></_>
        <_>
          <internalNodes>
            0 -1 52 -1.3057948090136051e-02</internalNodes>
          <leafValues>
            6.4650672674179077e-01 -2.1468985080718994e-01</leafValues></_>
        <_>
          <internalNodes>
            0 -1 13 2.6275178417563438e-02</internalNodes>
          <leafValues>
            2.4254858493804932e-01 -6.6594862937927246e-01</leafValues></_></weakClassifiers></_>
    <!-- stage 3 -->
    <_>
      <maxWeakCount>10</maxWeakCount>
      <stageThreshold>-1.2008584737777710e+00</stageThreshold>
      <weakClassifiers>
        <_>
          <internalNodes>
            0 -1 57 -2.0224601030349731e-02</internalNodes>
          <leafValues>
            6.6962307691574097e-01 -5.7014924287796021e-01</leafValues></_>
        <_>
          <internalNodes>
            0 -1 94 5.9886030852794647e-02</internalNodes>
          <leafValues>
            -3.4817597270011902e-01 7.6756203174591064e-01</leafValues></_>
        <_>
          <internalNodes>
            0 -1 27 -1.7390904948115349e-02</internalNodes>
          <leafValues>
            -7.1084934473037720e-01 3.6710456013679504e-01</leafValues></_>
        <_>
          <internalNodes>
            0 -1 188 4.0487341582775116e-02</internalNodes>
          <leafValues>
            -2.5709941983222961e-01 9.3314486742019653e-01</leafValues></_>
        <_>
          <internalNodes>
            0 -1 10 2.3581655696034431e-03</internalNodes>
          <leafValues>
            2.4911552667617798e-01 -7.7457094192504883e-01</leafValues></_>
        <_>
          <internalNodes>
            0 -1 118 1.6650564968585968e-02</internalNodes>
          <leafValues>
            -2.7163395285606384e-01 7.6338833570480347e-01</leafValues></_>
        <_>
          <internalNodes>
            0 -1 9 -1.7295470461249352e-03</internalNodes>
          <leafValues>
            -6.3674235343933105e-01 2.7694767713546753e-01</leafValues></_>
        <_>
          <internalNodes>
            0 -1 131 -2.5737833231687546e-02</internalNodes>
          <leafValues>
            -6.8117940425872803e-01 2.1770127117633820e-01</leafValues></_>
        <_>
          <internalNodes>
            0 -1 29 1.7210969235748053e-03</internalNodes>
          <leafValues>
            1.9564656913280487e-01 -7.5912141799926758e-01</leafValues></_>
        <_>
          <internalNodes>
            0 -1 3 5.2352197468280792e-02</internalNodes>
          <leafValues>
            -3.1318324804306030e-01 5.5392801761627197e-01</leafValues></_></weakClassifiers></_>
    <!-- stage 4 -->
    <_>
      <maxWeakCount>11</maxWeakCount>
      <stageThreshold>-1.0732204914093018e+00</stageThreshold>
      <weakClassifiers>
        <_>
          <internalNodes>
            0 -1 28 2.6344556361436844e-02</internalNodes>
          <leafValues>
            -1.2037037312984467e-01 8.3361631631851196e-01</leafValues></_>
        <_>
          <internalNodes>
            0 -1 71 -2.2606290876865387e-02</internalNodes>
          <leafValues>
            6.5568238496780396e-01 -3.0456128716468811e-01</leafValues></_>
        <_>
          <internalNodes>
            0 -1 197 1.3701621443033218e-02</internalNodes>
          <leafValues>
            -2.1109676361083984e-01 8.5384112596511841e-01</leafValues></_>
        <_>
          <internalNodes>
            0 -1 146 -1.1016214266419411e-02</internalNodes>
          <leafValues>
            8.0745595693588257e-01 -2.4136732518672943e-01</leafValues></_>
        <_>
          <internalNodes>
            0 -1 81 6.8285807967185974e-02</internalNodes>
          <leafValues>
            -2.4863165616989136e-01 6.2676233053207397e-01</leafValues></_>
        <_>
          <internalNodes>
            0 -1 113 -3.3711932599544525e-02</internalNodes>
          <leafValues>
            -6.5273654460906982e-01 2.6129385828971863e-01</leafValues></_>
        <_>
          <internalNodes>
            0 -1 2 5.8004189282655716e-02</internalNodes>
          <leafValues>
            -1.9725884497165680e-01 8.7660884857177734e-01</leafValues></_>
        <_>
          <internalNodes>
            0 -1 120 3.2878566533327103e-02</internalNodes>
          <leafValues>
            2.3403358459472656e-01 -8.0723971128463745e-01</leafValues></_>
        <_>
          <internalNodes>
            0 -1 63 7.0507906377315521e-02</internalNodes>
          <leafValues>
            -2.4933761358261108e-01 6.6494709253311157e-01</leafValues></_>
        <_>
          <internalNodes>
            0 -1 206 -6.3446396961808205e-03</internalNodes>
          <leafValues>
            6.6521424055099487e-01 -2.2103886306285858e-01</leafValues></_>
        <_>
          <internalNodes>
            0 -1 19 5.4796546464785933e-04</internalNodes>
          <leafValues>
            2.2511480748653412e-01 -7.4755674600601196e-01</leafValues></_></weakClassifiers></_>
    <!-- stage 5 -->
    <_>
      <maxWeakCount>7</maxWeakCount>
      <stageThreshold>-4.5648354291915894e-01</stageThreshold>
      <weakClassifiers>
        <_>
          <internalNodes>
            0 -1 14 1.3084568083286285e-02</internalNodes>
          <leafValues>
            -2.1978022158145905e-01 7.7134585380554199e-01</leafValues></_>
        <_>
          <internalNodes>
            0 -1 43 1.8529161810874939e-02</internalNodes>
          <leafValues>
            -1.9356752932071686e-01 7.3878586292266846e-01</leafValues></_>
        <_>
          <internalNodes>
            0 -1 134 -1.7717953771352768e-02</internalNodes>
          <leafValues>
            -6.8150961399078369e-01 2.8617960214614868e-01</leafValues></_>
        <_>
          <internalNodes>
            0 -1 174 -1.5680858865380287e-02</internalNodes>
          <leafValues>
            8.1474930047988892e-01 -2.2472395002841949e-01</leafValues></_>
        <_>
          <internalNodes>
            0 -1 95 6.0476092621684074e-03</internalNodes>
          <leafValues>
            -3.4511479735374451e-01 5.2846735715866089e-01</leafValues></_>
        <_>
          <internalNodes>
            0 -1 207 1.9359663128852844e-03</internalNodes>
          <leafValues>
            2.1642236411571503e-01 -8.3187305927276611e-01</leafValues></_>
        <_>
          <internalNodes>
            0 -1 210 7.9715915489941835e-04</internalNodes>
          <leafValues>
            1.9881428778171539e-01 -7.6892983913421631e-01</leafValues></_></weakClassifiers></_>
    <!-- stage 6 -->
    <_>
      <maxWeakCount>9</maxWeakCount>
      <stageThreshold>-1.1620210409164429e+00</stageThreshold>
      <weakClassifiers>
        <_>
          <internalNodes>
            0 -1 68 3.5220861434936523e-02</internalNodes>
          <leafValues>
            -1.4691942930221558e-01 8.3774834871292114e-01</leafValues></_>
        <_>
          <internalNodes>
            0 -1 67 -2.1029755007475615e-03</internalNodes>
          <leafValues>
            -7.4566054344177246e-01 3.6458224058151245e-01</leafValues></_>
        <_>
          <internalNodes>
            0 -1 123 -1.9570380449295044e-02</internalNodes>
          <leafValues>
            7.2098290920257568e-01 -2.8493821620941162e-01</leafValues></_>
        <_>
          <internalNodes>
            0 -1 125 -4.3372986838221550e-03</internalNodes>
          <leafValues>
            -7.7588540315628052e-01 2.8672462701797485e-01</leafValues></_>
        <_>
          <internalNodes>
            0 -1 92 -1.1704763397574425e-02</internalNodes>
          <leafValues>
            8.8022488355636597e-01 -2.7398961782455444e-01</leafValues></_>
        <_>
          <internalNodes>
            0 -1 23 1.0534694883972406e-03</internalNodes>
          <leafValues>
            2.9257467389106750e-01 -7.1850615739822388e-01</leafValues></_>
        <_>
          <internalNodes>
            0 -1 32 -1.8248263746500015e-02</internalNodes>
          <leafValues>
            7.0749372243881226e-01 -2.5810548663139343e-01</leafValues></_>
        <_>
          <internalNodes>
            0 -1 152 2.2833172697573900e-03</internalNodes>
          <leafValues>
            2.2308295965194702e-01 -8.8142704963684082e-01</leafValues></_>
        <_>
          <internalNodes>
            0 -1 78 3.9153121411800385e-02</internalNodes>
          <leafValues>
            -2.6052266359329224e-01 9.0577304363250732e-01</leafValues></_></weakClassifiers></_>
    <!-- stage 7 -->
    <_>
      <maxWeakCount>12</maxWeakCount>
      <stageThreshold>-1.1564846038818359e+00</stageThreshold>
      <weakClassifiers>
        <_>
          <internalNodes>
            0 -1 87 -1.5499236062169075e-02</internalNodes>
          <leafValues>
            6.5437787771224976e-01 -4.2005419731140137e-01</leafValues></_>
        <_>
          <internalNodes>
            0 -1 122 6.4974389970302582e-03</internalNodes>
          <leafValues>
            -3.9882692694664001e-01 6.1227780580520630e-01</leafValues></_>
        <_>
          <internalNodes>
            0 -1 25 1.6687484458088875e-02</internalNodes>
          <leafValues>
            -2.3407495021820068e-01 7.6430237293243408e-01</leafValues></_>
        <_>
          <internalNodes>
            0 -1 168 1.5407024184241891e-03</internalNodes>
          <leafValues>
            -3.3722361922264099e-01 4.8708036541938782e-01</leafValues></_>
        <_>
          <internalNodes>
            0 -1 179 2.9043387621641159e-02</internalNodes>
          <leafValues>
            -2.8978377580642700e-01 7.0592874288558960e-01</leafValues></_>
        <_>
          <internalNodes>
            0 -1 101 2.0813252776861191e-02</internalNodes>
          <leafValues>
            -2.6823517680168152e-01 6.4578521251678467e-01</leafValues></_>
        <_>
          <internalNodes>
            0 -1 74 -3.0856635421514511e-02</internalNodes>
          <leafValues>
            7.2463142871856689e-01 -2.3507478833198547e-01</leafValues></_>
        <_>
          <internalNodes>
            0 -1 135 -1.6465263906866312e-03</internalNodes>
          <leafValues>
            -5.4553908109664917e-01 3.2953730225563049e-01</leafValues></_>
        <_>
          <internalNodes>
            0 -1 201 -2.1166652441024780e-02</internalNodes>
          <leafValues>
            5.6973099708557129e-01 -3.2731795310974121e-01</leafValues></_>
        <_>
          <internalNodes>
            0 -1 162 3.0532346572726965e-03</internalNodes>
          <leafValues>
            1.9489891827106476e-01 -9.2878359556198120e-01</leafValues></_>
        <_>
          <internalNodes>
            0 -1 191 -1.7492908984422684e-02</internalNodes>
          <leafValues>
            9.1710609197616577e-01 -2.0002399384975433e-01</leafValues></_>
        <_>
          <internalNodes>
            0 -1 109 9.0692183002829552e-03</internalNodes>
          <leafValues>
            2.0539058744907379e-01 -8.2024079561233521e-01</leafValues></_></weakClassifiers></_>
    <!-- stage 8 -->
    <_>
      <maxWeakCount>9</maxWeakCount>
      <stageThreshold>-7.1787071228027344e-01</stageThreshold>
      <weakClassifiers>
        <_>
          <internalNodes>
            0 -1 132 -4.7782966867089272e-03</internalNodes>
          <leafValues>
            6.4759725332260132e-01 -4.2148759961128235e-01</leafValues></_>
        <_>
          <internalNodes>
            0 -1 45 -6.3299597240984440e-04</internalNodes>
          <leafValues>
            5.3298383951187134e-01 -4.4148916006088257e-01</leafValues></_>
        <_>
          <internalNodes>
            0 -1 159 1.5974163543432951e-03</internalNodes>
          <leafValues>
            -3.0666503310203552e-01 6.7781877517700195e-01</leafValues></_>
        <_>
          <internalNodes>
            0 -1 112 7.0356298238039017e-03</internalNodes>
          <leafValues>
            -3.3707192540168762e-01 4.8820349574089050e-01</leafValues></_>
        <_>
          <internalNodes>
            0 -1 185 -1.9207419827580452e-02</internalNodes>
          <leafValues>
            7.6069658994674683e-01 -2.6271745562553406e-01</leafValues></_>
        <_>
          <internalNodes>
            0 -1 107 1.3275132514536381e-02</internalNodes>
          <leafValues>
            -3.3542352914810181e-01 5.4323995113372803e-01</leafValues></_>
        <_>
          <internalNodes>
            0 -1 111 1.5379097312688828e-03</internalNodes>
          <leafValues>
            2.2029612958431244e-01 -7.7522081136703491e-01</leafValues></_>
        <_>
          <internalNodes>
            0 -1 21 2.5792989879846573e-02</internalNodes>
          <leafValues>
            -2.9044073820114136e-01 7.0664894580841064e-01</leafValues></_>
        <_>
          <internalNodes>
            0 -1 35 1.0467208921909332e-02</internalNodes>
          <leafValues>
            -2.4681030213832855e-01 7.2163975238800049e-01</leafValues></_></weakClassifiers></_>
    <!-- stage 9 -->
    <_>
      <maxWeakCount>9</maxWeakCount>
      <stageThreshold>-6.8724912405014038e-01</stageThreshold>
      <weakClassifiers>
        <_>
          <internalNodes>
            0 -1 149 -7.3992740362882614e-03</internalNodes>
          <leafValues>
            7.4603176116943359e-01 -1.9117647409439087e-01</leafValues></_>
        <_>
          <internalNodes>
            0 -1 55 -3.9639887399971485e-03</internalNodes>
          <leafValues>
            6.0115528106689453e-01 -3.2601234316825867e-01</leafValues></_>
        <_>
          <internalNodes>
            0 -1 121 1.3906320556998253e-02</internalNodes>
          <leafValues>
            -3.1109222769737244e-01 5.7506680488586426e-01</leafValues></_>
        <_>
          <internalNodes>
            0 -1 75 -6.0773737728595734e-02</internalNodes>
          <leafValues>
            6.1859393119812012e-01 -2.3467896878719330e-01</leafValues></_>
        <_>
          <internalNodes>
            0 -1 184 -7.1153203025460243e-03</internalNodes>
          <leafValues>
            7.0128518342971802e-01 -2.3579135537147522e-01</leafValues></_>
        <_>
          <internalNodes>
            0 -1 151 -1.6257921233773232e-03</internalNodes>
          <leafValues>
            6.0711425542831421e-01 -2.7739223837852478e-01</leafValues></_>
        <_>
          <internalNodes>
            0 -1 186 3.6738498602062464e-03</internalNodes>
          <leafValues>
            -2.2894708812236786e-01 6.2211090326309204e-01</leafValues></_>
        <_>
          <internalNodes>
            0 -1 82 -1.1187451891601086e-03</internalNodes>
          <leafValues>
            4.3517404794692993e-01 -3.4336277842521667e-01</leafValues></_>
        <_>
          <internalNodes>
            0 -1 53 -1.0791542008519173e-02</internalNodes>
          <leafValues>
            7.6481848955154419e-01 -2.0183897018432617e-01</leafValues></_></weakClassifiers></_>
    <!-- stage 10 -->
    <_>
      <maxWeakCount>11</maxWeakCount>
      <stageThreshold>-5.0211441516876221e-01</stageThreshold>
      <weakClassifiers>
        <_>
          <internalNodes>
            0 -1 50 1.8785485997796059e-02</internalNodes>
          <leafValues>
            -7.6205290853977203e-02 7.7777779102325439e-01</leafValues></_>
        <_>
          <internalNodes>
            0 -1 158 6.0106227174401283e-03</internalNodes>
          <leafValues>
            -2.0285211503505707e-01 7.6127862930297852e-01</leafValues></_>
        <_>
          <internalNodes>
            0 -1 1 2.2555410861968994e-02</internalNodes>
          <leafValues>
            -2.1034637093544006e-01 6.1328262090682983e-01</leafValues></_>
        <_>
          <internalNodes>
            0 -1 89 -8.3443727344274521e-03</internalNodes>
          <leafValues>
            -7.4074441194534302e-01 1.8812154233455658e-01</leafValues></_>
        <_>
          <internalNodes>
            0 -1 30 5.1877290010452271e-02</internalNodes>
          <leafValues>
            1.8125031888484955e-01 -7.1518206596374512e-01</leafValues></_>
        <_>
          <internalNodes>
            0 -1 153 -1.8215765012428164e-03</internalNodes>
          <leafValues>
            -6.7541289329528809e-01 1.6065759956836700e-01</leafValues></_>
        <_>
          <internalNodes>
            0 -1 181 -2.4651236832141876e-02</internalNodes>
          <leafValues>
            7.5251019001007080e-01 -2.0757906138896942e-01</leafValues></_>
        <_>
          <internalNodes>
            0 -1 178 3.6958768963813782e-02</internalNodes>
          <leafValues>
            -1.2515507638454437e-01 8.1075686216354370e-01</leafValues></_>
        <_>
          <internalNodes>
            0 -1 80 -3.8108654320240021e-02</internalNodes>
          <leafValues>
            7.5399196147918701e-01 -1.6904234886169434e-01</leafValues></_>
        <_>
          <internalNodes>
            0 -1 173 -1.1362418532371521e-02</internalNodes>
          <leafValues>
            7.4870246648788452e-01 -1.4592136442661285e-01</leafValues></_>
        <_>
          <internalNodes>
            0 -1 8 1.3391524553298950e-03</internalNodes>
          <leafValues>
            1.9228214025497437e-01 -7.4385821819305420e-01</leafValues></_></weakClassifiers></_>
    <!-- stage 11 -->
    <_>
      <maxWeakCount>10</maxWeakCount>
      <stageThreshold>-9.1566812992095947e-01</stageThreshold>
      <weakClassifiers>
        <_>
          <internalNodes>
            0 -1 156 1.8902224255725741e-03</internalNodes>
          <leafValues>
            -2.1756486594676971e-01 7.0923912525177002e-01</leafValues></_>
        <_>
          <internalNodes>
            0 -1 136 -1.4249244704842567e-03</internalNodes>
          <leafValues>
            5.2142095565795898e-01 -3.4829959273338318e-01</leafValues></_>
        <_>
          <internalNodes>
            0 -1 104 -4.1166450828313828e-03</internalNodes>
          <leafValues>
            -8.8877344131469727e-01 1.9098842144012451e-01</leafValues></_>
        <_>
          <internalNodes>
            0 -1 177 5.4412651807069778e-03</internalNodes>
          <leafValues>
            -3.1360754370689392e-01 5.5641222000122070e-01</leafValues></_>
        <_>
          <internalNodes>
            0 -1 196 3.1293809879571199e-03</internalNodes>
          <leafValues>
            1.5909749269485474e-01 -8.6971783638000488e-01</leafValues></_>
        <_>
          <internalNodes>
            0 -1 93 -1.1354366317391396e-02</internalNodes>
          <leafValues>
            7.1195012331008911e-01 -2.3804536461830139e-01</leafValues></_>
        <_>
          <internalNodes>
            0 -1 102 -8.0864559859037399e-03</internalNodes>
          <leafValues>
            5.4464411735534668e-01 -2.5434535741806030e-01</leafValues></_>
        <_>
          <internalNodes>
            0 -1 96 7.3887917096726596e-05</internalNodes>
          <leafValues>
            -4.9766197800636292e-01 2.9457813501358032e-01</leafValues></_>
        <_>
          <internalNodes>
            0 -1 141 3.1047299853526056e-04</internalNodes>
          <leafValues>
            -3.8484707474708557e-01 3.9175200462341309e-01</leafValues></_>
        <_>
          <internalNodes>
            0 -1 106 3.8949837908148766e-03</internalNodes>
          <leafValues>
            -7.1508842706680298e-01 2.1201869845390320e-01</leafValues></_></weakClassifiers></_>
    <!-- stage 12 -->
    <_>
      <maxWeakCount>10</maxWeakCount>
      <stageThreshold>-7.0255166292190552e-01</stageThreshold>
      <weakClassifiers>
        <_>
          <internalNodes>
            0 -1 49 1.6029395163059235e-02</internalNodes>
          <leafValues>
            -7.4484944343566895e-02 7.5907588005065918e-01</leafValues></_>
        <_>
          <internalNodes>
            0 -1 140 2.4446330964565277e-02</internalNodes>
          <leafValues>
            -1.7478902637958527e-01 7.5067031383514404e-01</leafValues></_>
        <_>
          <internalNodes>
            0 -1 69 -2.7877278625965118e-02</internalNodes>
          <leafValues>
            4.2284595966339111e-01 -3.7683990597724915e-01</leafValues></_>
        <_>
          <internalNodes>
            0 -1 193 4.6428006142377853e-02</internalNodes>
          <leafValues>
            -2.2298243641853333e-01 7.7182608842849731e-01</leafValues></_>
        <_>
          <internalNodes>
            0 -1 192 -7.8720506280660629e-03</internalNodes>
          <leafValues>
            6.9194597005844116e-01 -1.9806089997291565e-01</leafValues></_>
        <_>
          <internalNodes>
            0 -1 5 5.0936058163642883e-02</internalNodes>
          <leafValues>
            -2.5208181142807007e-01 5.6571012735366821e-01</leafValues></_>
        <_>
          <internalNodes>
            0 -1 126 2.3505906574428082e-03</internalNodes>
          <leafValues>
            1.7373067140579224e-01 -8.5571461915969849e-01</leafValues></_>
        <_>
          <internalNodes>
            0 -1 20 -4.6617764979600906e-02</internalNodes>
          <leafValues>
            -7.9781800508499146e-01 1.4019297063350677e-01</leafValues></_>
        <_>
          <internalNodes>
            0 -1 172 1.9232578575611115e-02</internalNodes>
          <leafValues>
            1.7223097383975983e-01 -6.7324131727218628e-01</leafValues></_>
        <_>
          <internalNodes>
            0 -1 117 -2.8734051156789064e-03</internalNodes>
          <leafValues>
            2.1498286724090576e-01 -5.4793119430541992e-01</leafValues></_></weakClassifiers></_>
    <!-- stage 13 -->
    <_>
      <maxWeakCount>11</maxWeakCount>
      <stageThreshold>-6.8561446666717529e-01</stageThreshold>
      <weakClassifiers>
        <_>
          <internalNodes>
            0 -1 31 6.3951849006116390e-03</internalNodes>
          <leafValues>
            -1.0135135054588318e-01 7.3333334922790527e-01</leafValues></_>
        <_>
          <internalNodes>
            0 -1 189 3.7992510944604874e-02</internalNodes>
          <leafValues>
            -1.5235689282417297e-01 7.3464268445968628e-01</leafValues></_>
        <_>
          <internalNodes>
            0 -1 129 -8.4437802433967590e-04</internalNodes>
          <leafValues>
            -5.6706213951110840e-01 2.7811563014984131e-01</leafValues></_>
        <_>
          <internalNodes>
            0 -1 167 3.9628972299396992e-03</internalNodes>
          <leafValues>
            -3.1865066289901733e-01 4.2086809873580933e-01</leafValues></_>
        <_>
          <internalNodes>
            0 -1 180 3.5597775131464005e-03</internalNodes>
          <leafValues>
            -2.9596942663192749e-01 4.3390616774559021e-01</leafValues></_>
        <_>
          <internalNodes>
            0 -1 7 2.6373700238764286e-03</internalNodes>
          <leafValues>
            1.6681848466396332e-01 -7.7971702814102173e-01</leafValues></_>
        <_>
          <internalNodes>
            0 -1 170 7.5165019370615482e-04</internalNodes>
          <leafValues>
            -3.7252315878868103e-01 3.3559888601303101e-01</leafValues></_>
        <_>
          <internalNodes>
            0 -1 110 -1.1001131497323513e-03</internalNodes>
          <leafValues>
            -8.1382286548614502e-01 1.4022170007228851e-01</leafValues></_>
        <_>
          <internalNodes>
            0 -1 54 -1.3280292972922325e-02</internalNodes>
          <leafValues>
            5.3160697221755981e-01 -2.3804235458374023e-01</leafValues></_>
        <_>
          <internalNodes>
            0 -1 79 4.3757930397987366e-02</internalNodes>
          <leafValues>
            -1.7333038151264191e-01 6.8672198057174683e-01</leafValues></_>
        <_>
          <internalNodes>
            0 -1 66 -7.4301841668784618e-03</internalNodes>
          <leafValues>
            5.8123415708541870e-01 -2.1136592328548431e-01</leafValues></_></weakClassifiers></_>
    <!-- stage 14 -->
    <_>
      <maxWeakCount>12</maxWeakCount>
      <stageThreshold>-6.4305382966995239e-01</stageThreshold>
      <weakClassifiers>
        <_>
          <internalNodes>
            0 -1 144 -1.5539173036813736e-02</internalNodes>
          <leafValues>
            7.9003560543060303e-01 -4.5925926417112350e-02</leafValues></_>
        <_>
          <internalNodes>
            0 -1 39 -2.2306010127067566e-02</internalNodes>
          <leafValues>
            5.9251290559768677e-01 -2.3812721669673920e-01</leafValues></_>
        <_>
          <internalNodes>
            0 -1 124 3.7180341314524412e-03</internalNodes>
          <leafValues>
            -4.1319081187248230e-01 3.3710733056068420e-01</leafValues></_>
        <_>
          <internalNodes>
            0 -1 51 -6.1140730977058411e-03</internalNodes>
          <leafValues>
            4.9321836233139038e-01 -2.7309179306030273e-01</leafValues></_>
        <_>
          <internalNodes>
            0 -1 139 8.4932371973991394e-03</internalNodes>
          <leafValues>
            -3.6426371335983276e-01 4.1911748051643372e-01</leafValues></_>
        <_>
          <internalNodes>
            0 -1 202 -6.7852293141186237e-03</internalNodes>
          <leafValues>
            -7.6636123657226563e-01 1.7944051325321198e-01</leafValues></_>
        <_>
          <internalNodes>
            0 -1 12 9.3916021287441254e-03</internalNodes>
          <leafValues>
            -2.3535378277301788e-01 6.2561839818954468e-01</leafValues></_>
        <_>
          <internalNodes>
            0 -1 44 -2.2589679807424545e-02</internalNodes>
          <leafValues>
            7.6767760515213013e-01 -1.4410942792892456e-01</leafValues></_>
        <_>
          <internalNodes>
            0 -1 137 -3.2891072332859039e-03</internalNodes>
          <leafValues>
            -7.1611374616622925e-01 1.9501815736293793e-01</leafValues></_>
        <_>
          <internalNodes>
            0 -1 130 1.4181900769472122e-02</internalNodes>
          <leafValues>
            -2.1012097597122192e-01 6.9101274013519287e-01</leafValues></_>
        <_>
          <internalNodes>
            0 -1 88 4.4510662555694580e-02</internalNodes>
          <leafValues>
            1.7125049233436584e-01 -8.6467707157135010e-01</leafValues></_>
        <_>
          <internalNodes>
            0 -1 72 -1.0584012605249882e-02</internalNodes>
          <leafValues>
            -7.1621924638748169e-01 1.6461409628391266e-01</leafValues></_></weakClassifiers></_>
    <!-- stage 15 -->
    <_>
      <maxWeakCount>13</maxWeakCount>
      <stageThreshold>-9.8067188262939453e-01</stageThreshold>
      <weakClassifiers>
        <_>
          <internalNodes>
            0 -1 60 -7.8242421150207520e-03</internalNodes>
          <leafValues>
            6.9230771064758301e-01 -1.5708811581134796e-01</leafValues></_>
        <_>
          <internalNodes>
            0 -1 182 -7.8348377719521523e-03</internalNodes>
          <leafValues>
            5.9172326326370239e-01 -2.0473977923393250e-01</leafValues></_>
        <_>
          <internalNodes>
            0 -1 143 -3.5947666037827730e-04</internalNodes>
          <leafValues>
            2.7919021248817444e-01 -4.9652087688446045e-01</leafValues></_>
        <_>
          <internalNodes>
            0 -1 41 6.1097396537661552e-03</internalNodes>
          <leafValues>
            -2.4286201596260071e-01 5.2126836776733398e-01</leafValues></_>
        <_>
          <internalNodes>
            0 -1 204 2.0631705410778522e-03</internalNodes>
          <leafValues>
            1.3440835475921631e-01 -8.6285883188247681e-01</leafValues></_>
        <_>
          <internalNodes>
            0 -1 17 3.8286473602056503e-02</internalNodes>
          <leafValues>
            -2.3725168406963348e-01 5.3052222728729248e-01</leafValues></_>
        <_>
          <internalNodes>
            0 -1 58 -2.2167027927935123e-03</internalNodes>
          <leafValues>
            4.0318408608436584e-01 -2.9268670082092285e-01</leafValues></_>
        <_>
          <internalNodes>
            0 -1 18 -2.5888110976666212e-03</internalNodes>
          <leafValues>
            -8.7595844268798828e-01 1.5679945051670074e-01</leafValues></_>
        <_>
          <internalNodes>
            0 -1 145 1.2373384088277817e-03</internalNodes>
          <leafValues>
            -4.2268261313438416e-01 2.7118110656738281e-01</leafValues></_>
        <_>
          <internalNodes>
            0 -1 46 1.3146151788532734e-02</internalNodes>
          <leafValues>
            -1.7784862220287323e-01 7.1819382905960083e-01</leafValues></_>
        <_>
          <internalNodes>
            0 -1 24 1.9899696111679077e-02</internalNodes>
          <leafValues>
            -1.7405852675437927e-01 6.7094171047210693e-01</leafValues></_>
        <_>
          <internalNodes>
            0 -1 133 -2.8395929839462042e-03</internalNodes>
          <leafValues>
            3.0526390671730042e-01 -3.8810008764266968e-01</leafValues></_>
        <_>
          <internalNodes>
            0 -1 100 8.5977707058191299e-03</internalNodes>
          <leafValues>
            1.3222485780715942e-01 -7.8167939186096191e-01</leafValues></_></weakClassifiers></_>
    <!-- stage 16 -->
    <_>
      <maxWeakCount>12</maxWeakCount>
      <stageThreshold>-6.6845393180847168e-01</stageThreshold>
      <weakClassifiers>
        <_>
          <internalNodes>
            0 -1 166 1.0285608470439911e-02</internalNodes>
          <leafValues>
            -2.2556390613317490e-02 7.4825173616409302e-01</leafValues></_>
        <_>
          <internalNodes>
            0 -1 127 2.5175902992486954e-02</internalNodes>
          <leafValues>
            -1.7516924440860748e-01 7.3526889085769653e-01</leafValues></_>
        <_>
          <internalNodes>
            0 -1 83 9.2345075681805611e-03</internalNodes>
          <leafValues>
            -6.2009501457214355e-01 2.4350260198116302e-01</leafValues></_>
        <_>
          <internalNodes>
            0 -1 77 -3.6925643682479858e-02</internalNodes>
          <leafValues>
            4.8013523221015930e-01 -2.8225144743919373e-01</leafValues></_>
        <_>
          <internalNodes>
            0 -1 175 -1.1512922123074532e-02</internalNodes>
          <leafValues>
            5.6497812271118164e-01 -2.2928206622600555e-01</leafValues></_>
        <_>
          <internalNodes>
            0 -1 147 1.8335323780775070e-02</internalNodes>
          <leafValues>
            -1.6959717869758606e-01 7.5904667377471924e-01</leafValues></_>
        <_>
          <internalNodes>
            0 -1 15 5.0151508301496506e-02</internalNodes>
          <leafValues>
            -2.7176380157470703e-01 4.3360927700996399e-01</leafValues></_>
        <_>
          <internalNodes>
            0 -1 200 1.2860328890383244e-02</internalNodes>
          <leafValues>
            -1.5734103322029114e-01 7.3560237884521484e-01</leafValues></_>
        <_>
          <internalNodes>
            0 -1 62 -2.4241235107183456e-02</internalNodes>
          <leafValues>
            4.4153192639350891e-01 -2.6391533017158508e-01</leafValues></_>
        <_>
          <internalNodes>
            0 -1 165 -2.4948637932538986e-02</internalNodes>
          <leafValues>
            -7.2645914554595947e-01 1.7226506769657135e-01</leafValues></_>
        <_>
          <internalNodes>
            0 -1 155 -2.0679339766502380e-02</internalNodes>
          <leafValues>
            -8.1664854288101196e-01 1.3317301869392395e-01</leafValues></_>
        <_>
          <internalNodes>
            0 -1 183 6.5601076930761337e-03</internalNodes>
          <leafValues>
            -1.9274087250232697e-01 7.4335849285125732e-01</leafValues></_></weakClassifiers></_>
    <!-- stage 17 -->
    <_>
      <maxWeakCount>12</maxWeakCount>
      <stageThreshold>-8.5453629493713379e-01</stageThreshold>
      <weakClassifiers>
        <_>
          <internalNodes>
            0 -1 76 2.3005201946943998e-03</internalNodes>
          <leafValues>
            -1.4947368204593658e-01 6.3517057895660400e-01</leafValues></_>
        <_>
          <internalNodes>
            0 -1 169 2.9919403605163097e-03</internalNodes>
          <leafValues>
            -3.4864404797554016e-01 4.4010156393051147e-01</leafValues></_>
        <_>
          <internalNodes>
            0 -1 114 1.1511000804603100e-02</internalNodes>
          <leafValues>
            2.3050203919410706e-01 -6.3376706838607788e-01</leafValues></_>
        <_>
          <internalNodes>
            0 -1 157 4.9699894152581692e-03</internalNodes>
          <leafValues>
            -2.7432808279991150e-01 5.0801217555999756e-01</leafValues></_>
        <_>
          <internalNodes>
            0 -1 6 4.2728424072265625e-02</internalNodes>
          <leafValues>
            -3.7373486161231995e-01 3.8970533013343811e-01</leafValues></_>
        <_>
          <internalNodes>
            0 -1 163 7.4582956731319427e-03</internalNodes>
          <leafValues>
            -2.6634070277214050e-01 4.1660735011100769e-01</leafValues></_>
        <_>
          <internalNodes>
            0 -1 18 2.6620670687407255e-03</internalNodes>
          <leafValues>
            1.0670417547225952e-01 -9.1071230173110962e-01</leafValues></_>
        <_>
          <internalNodes>
            0 -1 187 4.8084026202559471e-03</internalNodes>
          <leafValues>
            -2.5485947728157043e-01 4.8325362801551819e-01</leafValues></_>
        <_>
          <internalNodes>
            0 -1 195 2.0301525946706533e-03</internalNodes>
          <leafValues>
            -2.6279672980308533e-01 4.8060441017150879e-01</leafValues></_>
        <_>
          <internalNodes>
            0 -1 142 -2.5188813451677561e-03</internalNodes>
          <leafValues>
            -9.5936858654022217e-01 1.0718120634555817e-01</leafValues></_>
        <_>
          <internalNodes>
            0 -1 176 3.8579180836677551e-03</internalNodes>
          <leafValues>
            -2.5585651397705078e-01 4.3454319238662720e-01</leafValues></_>
        <_>
          <internalNodes>
            0 -1 97 3.3385947346687317e-02</internalNodes>
          <leafValues>
            1.8029357492923737e-01 -6.9373828172683716e-01</leafValues></_></weakClassifiers></_>
    <!-- stage 18 -->
    <_>
      <maxWeakCount>14</maxWeakCount>
      <stageThreshold>-8.4958809614181519e-01</stageThreshold>
      <weakClassifiers>
        <_>
          <internalNodes>
            0 -1 161 -1.7551770433783531e-03</internalNodes>
          <leafValues>
            6.4986735582351685e-01 -1.5942029654979706e-01</leafValues></_>
        <_>
          <internalNodes>
            0 -1 48 -6.4169913530349731e-03</internalNodes>
          <leafValues>
            4.5618304610252380e-01 -2.9208835959434509e-01</leafValues></_>
        <_>
          <internalNodes>
            0 -1 148 -2.2940261987969279e-04</internalNodes>
          <leafValues>
            2.2904244065284729e-01 -5.7512938976287842e-01</leafValues></_>
        <_>
          <internalNodes>
            0 -1 194 -1.1714881286025047e-02</internalNodes>
          <leafValues>
            5.0352907180786133e-01 -2.5390177965164185e-01</leafValues></_>
        <_>
          <internalNodes>
            0 -1 58 -5.4905014112591743e-03</internalNodes>
          <leafValues>
            5.0536680221557617e-01 -2.5034227967262268e-01</leafValues></_>
        <_>
          <internalNodes>
            0 -1 138 1.6601086826995015e-03</internalNodes>
          <leafValues>
            2.6253104209899902e-01 -4.7121611237525940e-01</leafValues></_>
        <_>
          <internalNodes>
            0 -1 115 -2.7006708085536957e-02</internalNodes>
          <leafValues>
            6.3975632190704346e-01 -1.9686172902584076e-01</leafValues></_>
        <_>
          <internalNodes>
            0 -1 203 -1.2505650520324707e-03</internalNodes>
          <leafValues>
            -8.6991757154464722e-01 1.5080374479293823e-01</leafValues></_>
        <_>
          <internalNodes>
            0 -1 208 -7.2196619585156441e-03</internalNodes>
          <leafValues>
            4.7254255414009094e-01 -2.5862124562263489e-01</leafValues></_>
        <_>
          <internalNodes>
            0 -1 154 -1.0053274035453796e-01</internalNodes>
          <leafValues>
            -7.4537312984466553e-01 1.8189437687397003e-01</leafValues></_>
        <_>
          <internalNodes>
            0 -1 103 3.0657920986413956e-02</internalNodes>
          <leafValues>
            -2.3102724552154541e-01 5.2596485614776611e-01</leafValues></_>
        <_>
          <internalNodes>
            0 -1 84 6.0129188001155853e-02</internalNodes>
          <leafValues>
            1.2894938886165619e-01 -9.1292840242385864e-01</leafValues></_>
        <_>
          <internalNodes>
            0 -1 11 -1.7907656729221344e-02</internalNodes>
          <leafValues>
            6.9981455802917480e-01 -1.8954479694366455e-01</leafValues></_>
        <_>
          <internalNodes>
            0 -1 22 4.0735611692070961e-03</internalNodes>
          <leafValues>
            1.8151710927486420e-01 -7.9573678970336914e-01</leafValues></_></weakClassifiers></_>
    <!-- stage 19 -->
    <_>
      <maxWeakCount>12</maxWeakCount>
      <stageThreshold>-7.2574353218078613e-01</stageThreshold>
      <weakClassifiers>
        <_>
          <internalNodes>
            0 -1 85 3.7333208601921797e-03</internalNodes>
          <leafValues>
            -6.8944096565246582e-01 4.8698884248733521e-01</leafValues></_>
        <_>
          <internalNodes>
            0 -1 33 1.0670418851077557e-02</internalNodes>
          <leafValues>
            -2.6134115457534790e-01 5.7641994953155518e-01</leafValues></_>
        <_>
          <internalNodes>
            0 -1 198 -4.9576479941606522e-03</internalNodes>
          <leafValues>
            4.9472016096115112e-01 -2.7822238206863403e-01</leafValues></_>
        <_>
          <internalNodes>
            0 -1 65 2.7295365929603577e-02</internalNodes>
          <leafValues>
            1.5213707089424133e-01 -8.3602935075759888e-01</leafValues></_>
        <_>
          <internalNodes>
            0 -1 160 -2.7118660509586334e-03</internalNodes>
          <leafValues>
            -7.3152208328247070e-01 1.3759979605674744e-01</leafValues></_>
        <_>
          <internalNodes>
            0 -1 4 3.0896160751581192e-02</internalNodes>
          <leafValues>
            -2.9605168104171753e-01 5.3544843196868896e-01</leafValues></_>
        <_>
          <internalNodes>
            0 -1 73 5.2804592996835709e-03</internalNodes>
          <leafValues>
            -5.8391320705413818e-01 2.7152439951896667e-01</leafValues></_>
        <_>
          <internalNodes>
            0 -1 70 -9.9390707910060883e-03</internalNodes>
          <leafValues>
            2.3999638855457306e-01 -4.4036725163459778e-01</leafValues></_>
        <_>
          <internalNodes>
            0 -1 36 2.2356273606419563e-02</internalNodes>
          <leafValues>
            -1.7574889957904816e-01 7.7853423357009888e-01</leafValues></_>
        <_>
          <internalNodes>
            0 -1 47 -3.8763277698308229e-03</internalNodes>
          <leafValues>
            5.7550406455993652e-01 -1.8182057142257690e-01</leafValues></_>
        <_>
          <internalNodes>
            0 -1 199 1.2038148939609528e-02</internalNodes>
          <leafValues>
            1.4147345721721649e-01 -8.3633708953857422e-01</leafValues></_>
        <_>
          <internalNodes>
            0 -1 171 3.3228890970349312e-03</internalNodes>
          <leafValues>
            1.0573315620422363e-01 -7.5741082429885864e-01</leafValues></_></weakClassifiers></_></stages>
  <features>
    <_>
      <rects>
        <_>
          0 1 6 18 -1.</_>
        <_>
          3 1 3 18 2.</_></rects>
      <tilted>0</tilted></_>
    <_>
      <rects>
        <_>
          0 2 10 6 -1.</_>
        <_>
          0 2 5 3 2.</_>
        <_>
          5 5 5 3 2.</_></rects>
      <tilted>0</tilted></_>
    <_>
      <rects>
        <_>
          0 6 4 14 -1.</_>
        <_>
          2 6 2 14 2.</_></rects>
      <tilted>0</tilted></_>
    <_>
      <rects>
        <_>
          0 6 6 17 -1.</_>
        <_>
          3 6 3 17 2.</_></rects>
      <tilted>0</tilted></_>
    <_>
      <rects>
        <_>
          0 7 4 9 -1.</_>
        <_>
          2 7 2 9 2.</_></rects>
      <tilted>0</tilted></_>
    <_>
      <rects>
        <_>
          0 7 6 13 -1.</_>
        <_>
          3 7 3 13 2.</_></rects>
      <tilted>0</tilted></_>
    <_>
      <rects>
        <_>
          0 9 12 4 -1.</_>
        <_>
          4 9 4 4 3.</_></rects>
      <tilted>0</tilted></_>
    <_>
      <rects>
        <_>
          0 10 5 3 -1.</_>
        <_>
          0 11 5 1 3.</_></rects>
      <tilted>0</tilted></_>
    <_>
      <rects>
        <_>
          0 11 3 2 -1.</_>
        <_>
          0 12 3 1 2.</_></rects>
      <tilted>0</tilted></_>
    <_>
      <rects>
        <_>
          0 11 5 3 -1.</_>
        <_>
          0 12 5 1 3.</_></rects>
      <tilted>0</tilted></_>
    <_>
      <rects>
        <_>
          0 16 4 3 -1.</_>
        <_>
          0 17 4 1 3.</_></rects>
      <tilted>0</tilted></_>
    <_>
      <rects>
        <_>
          0 19 24 2 -1.</_>
        <_>
          8 19 8 2 3.</_></rects>
      <tilted>0</tilted></_>
    <_>
      <rects>
        <_>
          1 4 2 9 -1.</_>
        <_>
          2 4 1 9 2.</_></rects>
      <tilted>0</tilted></_>
    <_>
      <rects>
        <_>
          1 5 6 14 -1.</_>
        <_>
          1 12 6 7 2.</_></rects>
      <tilted>0</tilted></_>
    <_>
      <rects>
        <_>
          1 5 21 1 -1.</_>
        <_>
          8 5 7 1 3.</_></rects>
      <tilted>0</tilted></_>
    <_>
      <rects>
        <_>
          1 7 12 11 -1.</_>
        <_>
          5 7 4 11 3.</_></rects>
      <tilted>0</tilted></_>
    <_>
      <rects>
        <_>
          1 8 2 9 -1.</_>
        <_>
          2 8 1 9 2.</_></rects>
      <tilted>0</tilted></_>
    <_>
      <rects>
        <_>
          1 8 6 7 -1.</_>
        <_>
          3 8 2 7 3.</_></rects>
      <tilted>0</tilted></_>
    <_>
      <rects>
        <_>
          1 8 3 3 -1.</_>
        <_>
          1 9 3 1 3.</_></rects>
      <tilted>0</tilted></_>
    <_>
      <rects>
        <_>
          1 9 1 3 -1.</_>
        <_>
          1 10 1 1 3.</_></rects>
      <tilted>0</tilted></_>
    <_>
      <rects>
        <_>
          1 10 22 10 -1.</_>
        <_>
          12 10 11 10 2.</_></rects>
      <tilted>0</tilted></_>
    <_>
      <rects>
        <_>
          1 11 6 4 -1.</_>
        <_>
          3 11 2 4 3.</_></rects>
      <tilted>0</tilted></_>
    <_>
      <rects>
        <_>
          1 11 3 4 -1.</_>
        <_>
          1 13 3 2 2.</_></rects>
      <tilted>0</tilted></_>
    <_>
      <rects>
        <_>
          1 12 4 2 -1.</_>
        <_>
          1 13 4 1 2.</_></rects>
      <tilted>0</tilted></_>
    <_>
      <rects>
        <_>
          2 2 10 4 -1.</_>
        <_>
          2 2 5 2 2.</_>
        <_>
          7 4 5 2 2.</_></rects>
      <tilted>0</tilted></_>
    <_>
      <rects>
        <_>
          2 3 6 6 -1.</_>
        <_>
          2 3 3 3 2.</_>
        <_>
          5 6 3 3 2.</_></rects>
      <tilted>0</tilted></_>
    <_>
      <rects>
        <_>
          2 7 4 11 -1.</_>
        <_>
          4 7 2 11 2.</_></rects>
      <tilted>0</tilted></_>
    <_>
      <rects>
        <_>
          2 8 14 12 -1.</_>
        <_>
          2 14 14 6 2.</_></rects>
      <tilted>0</tilted></_>
    <_>
      <rects>
        <_>
          2 9 6 7 -1.</_>
        <_>
          4 9 2 7 3.</_></rects>
      <tilted>0</tilted></_>
    <_>
      <rects>
        <_>
          2 11 3 3 -1.</_>
        <_>
          2 12 3 1 3.</_></rects>
      <tilted>0</tilted></_>
    <_>
      <rects>
        <_>
          2 11 22 7 -1.</_>
        <_>
          13 11 11 7 2.</_></rects>
      <tilted>0</tilted></_>
    <_>
      <rects>
        <_>
          2 18 8 1 -1.</_>
        <_>
          6 18 4 1 2.</_></rects>
      <tilted>0</tilted></_>
    <_>
      <rects>
        <_>
          2 18 10 4 -1.</_>
        <_>
          2 18 5 2 2.</_>
        <_>
          7 20 5 2 2.</_></rects>
      <tilted>0</tilted></_>
    <_>
      <rects>
        <_>
          3 3 6 4 -1.</_>
        <_>
          3 3 3 2 2.</_>
        <_>
          6 5 3 2 2.</_></rects>
      <tilted>0</tilted></_>
    <_>
      <rects>
        <_>
          3 4 6 4 -1.</_>
        <_>
          3 4 3 2 2.</_>
        <_>
          6 6 3 2 2.</_></rects>
      <tilted>0</tilted></_>
    <_>
      <rects>
        <_>
          3 4 6 6 -1.</_>
        <_>
          3 4 3 3 2.</_>
        <_>
          6 7 3 3 2.</_></rects>
      <tilted>0</tilted></_>
    <_>
      <rects>
        <_>
          3 4 8 4 -1.</_>
        <_>
          3 4 4 2 2.</_>
        <_>
          7 6 4 2 2.</_></rects>
      <tilted>0</tilted></_>
    <_>
      <rects>
        <_>
          3 5 4 6 -1.</_>
        <_>
          3 5 2 3 2.</_>
        <_>
          5 8 2 3 2.</_></rects>
      <tilted>0</tilted></_>
    <_>
      <rects>
        <_>
          3 5 6 4 -1.</_>
        <_>
          3 5 3 2 2.</_>
        <_>
          6 7 3 2 2.</_></rects>
      <tilted>0</tilted></_>
    <_>
      <rects>
        <_>
          3 5 6 10 -1.</_>
        <_>
          3 5 3 5 2.</_>
        <_>
          6 10 3 5 2.</_></rects>
      <tilted>0</tilted></_>
    <_>
      <rects>
        <_>
          3 8 20 1 -1.</_>
        <_>
          13 8 10 1 2.</_></rects>
      <tilted>0</tilted></_>
    <_>
      <rects>
        <_>
          3 10 6 1 -1.</_>
        <_>
          5 10 2 1 3.</_></rects>
      <tilted>0</tilted></_>
    <_>
      <rects>
        <_>
          3 10 8 12 -1.</_>
        <_>
          3 10 4 6 2.</_>
        <_>
          7 16 4 6 2.</_></rects>
      <tilted>0</tilted></_>
    <_>
      <rects>
        <_>
          3 13 6 6 -1.</_>
        <_>
          3 13 3 3 2.</_>
        <_>
          6 16 3 3 2.</_></rects>
      <tilted>0</tilted></_>
    <_>
      <rects>
        <_>
          3 16 6 6 -1.</_>
        <_>
          3 16 3 3 2.</_>
        <_>
          6 19 3 3 2.</_></rects>
      <tilted>0</tilted></_>
    <_>
      <rects>
        <_>
          3 17 5 2 -1.</_>
        <_>
          3 18 5 1 2.</_></rects>
      <tilted>0</tilted></_>
    <_>
      <rects>
        <_>
          3 18 6 6 -1.</_>
        <_>
          3 18 3 3 2.</_>
        <_>
          6 21 3 3 2.</_></rects>
      <tilted>0</tilted></_>
    <_>
      <rects>
        <_>
          4 5 2 8 -1.</_>
        <_>
          4 5 1 4 2.</_>
        <_>
          5 9 1 4 2.</_></rects>
      <tilted>0</tilted></_>
    <_>
      <rects>
        <_>
          4 6 4 6 -1.</_>
        <_>
          4 6 2 3 2.</_>
        <_>
          6 9 2 3 2.</_></rects>
      <tilted>0</tilted></_>
    <_>
      <rects>
        <_>
          4 11 4 10 -1.</_>
        <_>
          4 11 2 5 2.</_>
        <_>
          6 16 2 5 2.</_></rects>
      <tilted>0</tilted></_>
    <_>
      <rects>
        <_>
          4 15 8 6 -1.</_>
        <_>
          4 15 4 3 2.</_>
        <_>
          8 18 4 3 2.</_></rects>
      <tilted>0</tilted></_>
    <_>
      <rects>
        <_>
          4 18 17 2 -1.</_>
        <_>
          4 19 17 1 2.</_></rects>
      <tilted>0</tilted></_>
    <_>
      <rects>
        <_>
          4 21 16 2 -1.</_>
        <_>
          4 22 16 1 2.</_></rects>
      <tilted>0</tilted></_>
    <_>
      <rects>
        <_>
          5 3 6 4 -1.</_>
        <_>
          5 3 3 2 2.</_>
        <_>
          8 5 3 2 2.</_></rects>
      <tilted>0</tilted></_>
    <_>
      <rects>
        <_>
          5 5 6 4 -1.</_>
        <_>
          5 5 3 2 2.</_>
        <_>
          8 7 3 2 2.</_></rects>
      <tilted>0</tilted></_>
    <_>
      <rects>
        <_>
          5 6 4 4 -1.</_>
        <_>
          5 6 2 2 2.</_>
        <_>
          7 8 2 2 2.</_></rects>
      <tilted>0</tilted></_>
    <_>
      <rects>
        <_>
          5 6 6 4 -1.</_>
        <_>
          5 6 3 2 2.</_>
        <_>
          8 8 3 2 2.</_></rects>
      <tilted>0</tilted></_>
    <_>
      <rects>
        <_>
          5 7 9 11 -1.</_>
        <_>
          8 7 3 11 3.</_></rects>
      <tilted>0</tilted></_>
    <_>
      <rects>
        <_>
          5 9 4 4 -1.</_>
        <_>
          5 9 2 2 2.</_>
        <_>
          7 11 2 2 2.</_></rects>
      <tilted>0</tilted></_>
    <_>
      <rects>
        <_>
          5 9 6 4 -1.</_>
        <_>
          5 9 3 2 2.</_>
        <_>
          8 11 3 2 2.</_></rects>
      <tilted>0</tilted></_>
    <_>
      <rects>
        <_>
          5 18 5 4 -1.</_>
        <_>
          5 20 5 2 2.</_></rects>
      <tilted>0</tilted></_>
    <_>
      <rects>
        <_>
          6 2 14 19 -1.</_>
        <_>
          13 2 7 19 2.</_></rects>
      <tilted>0</tilted></_>
    <_>
      <rects>
        <_>
          6 12 13 6 -1.</_>
        <_>
          6 14 13 2 3.</_></rects>
      <tilted>0</tilted></_>
    <_>
      <rects>
        <_>
          6 13 10 9 -1.</_>
        <_>
          6 16 10 3 3.</_></rects>
      <tilted>0</tilted></_>
    <_>
      <rects>
        <_>
          6 14 14 9 -1.</_>
        <_>
          6 17 14 3 3.</_></rects>
      <tilted>0</tilted></_>
    <_>
      <rects>
        <_>
          6 18 9 6 -1.</_>
        <_>
          9 18 3 6 3.</_></rects>
      <tilted>0</tilted></_>
    <_>
      <rects>
        <_>
          7 0 15 2 -1.</_>
        <_>
          7 1 15 1 2.</_></rects>
      <tilted>0</tilted></_>
    <_>
      <rects>
        <_>
          7 2 12 20 -1.</_>
        <_>
          11 2 4 20 3.</_></rects>
      <tilted>0</tilted></_>
    <_>
      <rects>
        <_>
          7 3 11 6 -1.</_>
        <_>
          7 5 11 2 3.</_></rects>
      <tilted>0</tilted></_>
    <_>
      <rects>
        <_>
          7 6 6 11 -1.</_>
        <_>
          9 6 2 11 3.</_></rects>
      <tilted>0</tilted></_>
    <_>
      <rects>
        <_>
          7 7 6 5 -1.</_>
        <_>
          9 7 2 5 3.</_></rects>
      <tilted>0</tilted></_>
    <_>
      <rects>
        <_>
          7 7 6 6 -1.</_>
        <_>
          9 7 2 6 3.</_></rects>
      <tilted>0</tilted></_>
    <_>
      <rects>
        <_>
          7 11 10 7 -1.</_>
        <_>
          12 11 5 7 2.</_></rects>
      <tilted>0</tilted></_>
    <_>
      <rects>
        <_>
          7 12 8 11 -1.</_>
        <_>
          11 12 4 11 2.</_></rects>
      <tilted>0</tilted></_>
    <_>
      <rects>
        <_>
          7 12 10 6 -1.</_>
        <_>
          7 14 10 2 3.</_></rects>
      <tilted>0</tilted></_>
    <_>
      <rects>
        <_>
          7 18 12 6 -1.</_>
        <_>
          7 21 12 3 2.</_></rects>
      <tilted>0</tilted></_>
    <_>
      <rects>
        <_>
          7 19 4 3 -1.</_>
        <_>
          9 19 2 3 2.</_></rects>
      <tilted>0</tilted></_>
    <_>
      <rects>
        <_>
          7 20 13 4 -1.</_>
        <_>
          7 22 13 2 2.</_></rects>
      <tilted>0</tilted></_>
    <_>
      <rects>
        <_>
          8 0 8 6 -1.</_>
        <_>
          8 2 8 2 3.</_></rects>
      <tilted>0</tilted></_>
    <_>
      <rects>
        <_>
          8 0 9 6 -1.</_>
        <_>
          8 2 9 2 3.</_></rects>
      <tilted>0</tilted></_>
    <_>
      <rects>
        <_>
          8 2 10 6 -1.</_>
        <_>
          8 4 10 2 3.</_></rects>
      <tilted>0</tilted></_>
    <_>
      <rects>
        <_>
          8 2 10 9 -1.</_>
        <_>
          8 5 10 3 3.</_></rects>
      <tilted>0</tilted></_>
    <_>
      <rects>
        <_>
          8 6 2 4 -1.</_>
        <_>
          8 6 1 2 2.</_>
        <_>
          9 8 1 2 2.</_></rects>
      <tilted>0</tilted></_>
    <_>
      <rects>
        <_>
          8 8 6 14 -1.</_>
        <_>
          11 8 3 14 2.</_></rects>
      <tilted>0</tilted></_>
    <_>
      <rects>
        <_>
          8 9 15 4 -1.</_>
        <_>
          13 9 5 4 3.</_></rects>
      <tilted>0</tilted></_>
    <_>
      <rects>
        <_>
          8 9 6 12 -1.</_>
        <_>
          8 15 6 6 2.</_></rects>
      <tilted>0</tilted></_>
    <_>
      <rects>
        <_>
          8 10 7 10 -1.</_>
        <_>
          8 15 7 5 2.</_></rects>
      <tilted>0</tilted></_>
    <_>
      <rects>
        <_>
          8 10 14 10 -1.</_>
        <_>
          8 10 7 5 2.</_>
        <_>
          15 15 7 5 2.</_></rects>
      <tilted>0</tilted></_>
    <_>
      <rects>
        <_>
          8 12 12 11 -1.</_>
        <_>
          14 12 6 11 2.</_></rects>
      <tilted>0</tilted></_>
    <_>
      <rects>
        <_>
          8 18 8 5 -1.</_>
        <_>
          12 18 4 5 2.</_></rects>
      <tilted>0</tilted></_>
    <_>
      <rects>
        <_>
          8 19 11 4 -1.</_>
        <_>
          8 21 11 2 2.</_></rects>
      <tilted>0</tilted></_>
    <_>
      <rects>
        <_>
          8 20 6 4 -1.</_>
        <_>
          8 22 6 2 2.</_></rects>
      <tilted>0</tilted></_>
    <_>
      <rects>
        <_>
          8 21 8 2 -1.</_>
        <_>
          8 22 8 1 2.</_></rects>
      <tilted>0</tilted></_>
    <_>
      <rects>
        <_>
          9 1 8 3 -1.</_>
        <_>
          9 2 8 1 3.</_></rects>
      <tilted>0</tilted></_>
    <_>
      <rects>
        <_>
          9 1 9 9 -1.</_>
        <_>
          9 4 9 3 3.</_></rects>
      <tilted>0</tilted></_>
    <_>
      <rects>
        <_>
          9 2 8 3 -1.</_>
        <_>
          9 3 8 1 3.</_></rects>
      <tilted>0</tilted></_>
    <_>
      <rects>
        <_>
          9 3 6 4 -1.</_>
        <_>
          11 3 2 4 3.</_></rects>
      <tilted>0</tilted></_>
    <_>
      <rects>
        <_>
          9 4 12 18 -1.</_>
        <_>
          9 4 6 9 2.</_>
        <_>
          15 13 6 9 2.</_></rects>
      <tilted>0</tilted></_>
    <_>
      <rects>
        <_>
          9 8 6 5 -1.</_>
        <_>
          11 8 2 5 3.</_></rects>
      <tilted>0</tilted></_>
    <_>
      <rects>
        <_>
          9 10 4 4 -1.</_>
        <_>
          11 10 2 4 2.</_></rects>
      <tilted>0</tilted></_>
    <_>
      <rects>
        <_>
          9 18 4 5 -1.</_>
        <_>
          11 18 2 5 2.</_></rects>
      <tilted>0</tilted></_>
    <_>
      <rects>
        <_>
          9 18 7 6 -1.</_>
        <_>
          9 20 7 2 3.</_></rects>
      <tilted>0</tilted></_>
    <_>
      <rects>
        <_>
          10 0 7 3 -1.</_>
        <_>
          10 1 7 1 3.</_></rects>
      <tilted>0</tilted></_>
    <_>
      <rects>
        <_>
          10 1 7 4 -1.</_>
        <_>
          10 3 7 2 2.</_></rects>
      <tilted>0</tilted></_>
    <_>
      <rects>
        <_>
          10 2 4 3 -1.</_>
        <_>
          12 2 2 3 2.</_></rects>
      <tilted>0</tilted></_>
    <_>
      <rects>
        <_>
          10 4 12 8 -1.</_>
        <_>
          10 4 6 4 2.</_>
        <_>
          16 8 6 4 2.</_></rects>
      <tilted>0</tilted></_>
    <_>
      <rects>
        <_>
          10 10 8 10 -1.</_>
        <_>
          10 15 8 5 2.</_></rects>
      <tilted>0</tilted></_>
    <_>
      <rects>
        <_>
          10 11 6 5 -1.</_>
        <_>
          12 11 2 5 3.</_></rects>
      <tilted>0</tilted></_>
    <_>
      <rects>
        <_>
          10 13 8 9 -1.</_>
        <_>
          14 13 4 9 2.</_></rects>
      <tilted>0</tilted></_>
    <_>
      <rects>
        <_>
          10 20 6 4 -1.</_>
        <_>
          12 20 2 4 3.</_></rects>
      <tilted>0</tilted></_>
    <_>
      <rects>
        <_>
          11 1 3 1 -1.</_>
        <_>
          12 1 1 1 3.</_></rects>
      <tilted>0</tilted></_>
    <_>
      <rects>
        <_>
          11 1 3 2 -1.</_>
        <_>
          12 1 1 2 3.</_></rects>
      <tilted>0</tilted></_>
    <_>
      <rects>
        <_>
          11 1 3 4 -1.</_>
        <_>
          11 3 3 2 2.</_></rects>
      <tilted>0</tilted></_>
    <_>
      <rects>
        <_>
          11 1 7 22 -1.</_>
        <_>
          11 12 7 11 2.</_></rects>
      <tilted>0</tilted></_>
    <_>
      <rects>
        <_>
          11 2 2 22 -1.</_>
        <_>
          11 13 2 11 2.</_></rects>
      <tilted>0</tilted></_>
    <_>
      <rects>
        <_>
          11 2 10 4 -1.</_>
        <_>
          11 2 5 2 2.</_>
        <_>
          16 4 5 2 2.</_></rects>
      <tilted>0</tilted></_>
    <_>
      <rects>
        <_>
          11 3 8 6 -1.</_>
        <_>
          15 3 4 6 2.</_></rects>
      <tilted>0</tilted></_>
    <_>
      <rects>
        <_>
          11 4 8 5 -1.</_>
        <_>
          15 4 4 5 2.</_></rects>
      <tilted>0</tilted></_>
    <_>
      <rects>
        <_>
          11 6 3 11 -1.</_>
        <_>
          12 6 1 11 3.</_></rects>
      <tilted>0</tilted></_>
    <_>
      <rects>
        <_>
          11 7 3 10 -1.</_>
        <_>
          12 7 1 10 3.</_></rects>
      <tilted>0</tilted></_>
    <_>
      <rects>
        <_>
          11 7 13 8 -1.</_>
        <_>
          11 11 13 4 2.</_></rects>
      <tilted>0</tilted></_>
    <_>
      <rects>
        <_>
          11 8 3 7 -1.</_>
        <_>
          12 8 1 7 3.</_></rects>
      <tilted>0</tilted></_>
    <_>
      <rects>
        <_>
          11 9 3 5 -1.</_>
        <_>
          12 9 1 5 3.</_></rects>
      <tilted>0</tilted></_>
    <_>
      <rects>
        <_>
          11 10 6 3 -1.</_>
        <_>
          13 10 2 3 3.</_></rects>
      <tilted>0</tilted></_>
    <_>
      <rects>
        <_>
          11 11 3 5 -1.</_>
        <_>
          12 11 1 5 3.</_></rects>
      <tilted>0</tilted></_>
    <_>
      <rects>
        <_>
          11 18 4 4 -1.</_>
        <_>
          13 18 2 4 2.</_></rects>
      <tilted>0</tilted></_>
    <_>
      <rects>
        <_>
          11 19 2 3 -1.</_>
        <_>
          12 19 1 3 2.</_></rects>
      <tilted>0</tilted></_>
    <_>
      <rects>
        <_>
          11 19 12 4 -1.</_>
        <_>
          11 19 6 2 2.</_>
        <_>
          17 21 6 2 2.</_></rects>
      <tilted>0</tilted></_>
    <_>
      <rects>
        <_>
          12 1 1 6 -1.</_>
        <_>
          12 4 1 3 2.</_></rects>
      <tilted>0</tilted></_>
    <_>
      <rects>
        <_>
          12 1 1 10 -1.</_>
        <_>
          12 6 1 5 2.</_></rects>
      <tilted>0</tilted></_>
    <_>
      <rects>
        <_>
          12 4 3 15 -1.</_>
        <_>
          13 4 1 15 3.</_></rects>
      <tilted>0</tilted></_>
    <_>
      <rects>
        <_>
          12 4 10 18 -1.</_>
        <_>
          12 4 5 9 2.</_>
        <_>
          17 13 5 9 2.</_></rects>
      <tilted>0</tilted></_>
    <_>
      <rects>
        <_>
          12 5 3 8 -1.</_>
        <_>
          12 9 3 4 2.</_></rects>
      <tilted>0</tilted></_>
    <_>
      <rects>
        <_>
          12 6 4 5 -1.</_>
        <_>
          14 6 2 5 2.</_></rects>
      <tilted>0</tilted></_>
    <_>
      <rects>
        <_>
          12 8 12 10 -1.</_>
        <_>
          12 13 12 5 2.</_></rects>
      <tilted>0</tilted></_>
    <_>
      <rects>
        <_>
          12 10 11 3 -1.</_>
        <_>
          12 11 11 1 3.</_></rects>
      <tilted>0</tilted></_>
    <_>
      <rects>
        <_>
          12 11 2 2 -1.</_>
        <_>
          13 11 1 2 2.</_></rects>
      <tilted>0</tilted></_>
    <_>
      <rects>
        <_>
          12 11 8 1 -1.</_>
        <_>
          16 11 4 1 2.</_></rects>
      <tilted>0</tilted></_>
    <_>
      <rects>
        <_>
          12 11 12 2 -1.</_>
        <_>
          12 12 12 1 2.</_></rects>
      <tilted>0</tilted></_>
    <_>
      <rects>
        <_>
          12 18 4 6 -1.</_>
        <_>
          12 20 4 2 3.</_></rects>
      <tilted>0</tilted></_>
    <_>
      <rects>
        <_>
          12 19 12 4 -1.</_>
        <_>
          12 19 6 2 2.</_>
        <_>
          18 21 6 2 2.</_></rects>
      <tilted>0</tilted></_>
    <_>
      <rects>
        <_>
          13 0 6 2 -1.</_>
        <_>
          13 1 6 1 2.</_></rects>
      <tilted>0</tilted></_>
    <_>
      <rects>
        <_>
          13 1 2 3 -1.</_>
        <_>
          14 1 1 3 2.</_></rects>
      <tilted>0</tilted></_>
    <_>
      <rects>
        <_>
          13 2 4 4 -1.</_>
        <_>
          15 2 2 4 2.</_></rects>
      <tilted>0</tilted></_>
    <_>
      <rects>
        <_>
          13 2 10 4 -1.</_>
        <_>
          13 2 5 2 2.</_>
        <_>
          18 4 5 2 2.</_></rects>
      <tilted>0</tilted></_>
    <_>
      <rects>
        <_>
          13 5 7 2 -1.</_>
        <_>
          13 6 7 1 2.</_></rects>
      <tilted>0</tilted></_>
    <_>
      <rects>
        <_>
          13 9 3 6 -1.</_>
        <_>
          14 9 1 6 3.</_></rects>
      <tilted>0</tilted></_>
    <_>
      <rects>
        <_>
          13 10 6 2 -1.</_>
        <_>
          15 10 2 2 3.</_></rects>
      <tilted>0</tilted></_>
    <_>
      <rects>
        <_>
          13 15 4 8 -1.</_>
        <_>
          15 15 2 8 2.</_></rects>
      <tilted>0</tilted></_>
    <_>
      <rects>
        <_>
          13 15 8 6 -1.</_>
        <_>
          13 15 4 3 2.</_>
        <_>
          17 18 4 3 2.</_></rects>
      <tilted>0</tilted></_>
    <_>
      <rects>
        <_>
          13 17 7 4 -1.</_>
        <_>
          13 19 7 2 2.</_></rects>
      <tilted>0</tilted></_>
    <_>
      <rects>
        <_>
          13 20 8 2 -1.</_>
        <_>
          13 20 4 1 2.</_>
        <_>
          17 21 4 1 2.</_></rects>
      <tilted>0</tilted></_>
    <_>
      <rects>
        <_>
          14 1 3 3 -1.</_>
        <_>
          15 1 1 3 3.</_></rects>
      <tilted>0</tilted></_>
    <_>
      <rects>
        <_>
          14 1 3 4 -1.</_>
        <_>
          15 1 1 4 3.</_></rects>
      <tilted>0</tilted></_>
    <_>
      <rects>
        <_>
          14 1 5 21 -1.</_>
        <_>
          14 8 5 7 3.</_></rects>
      <tilted>0</tilted></_>
    <_>
      <rects>
        <_>
          14 2 6 7 -1.</_>
        <_>
          16 2 2 7 3.</_></rects>
      <tilted>0</tilted></_>
    <_>
      <rects>
        <_>
          14 4 6 2 -1.</_>
        <_>
          14 5 6 1 2.</_></rects>
      <tilted>0</tilted></_>
    <_>
      <rects>
        <_>
          14 9 3 4 -1.</_>
        <_>
          15 9 1 4 3.</_></rects>
      <tilted>0</tilted></_>
    <_>
      <rects>
        <_>
          14 10 2 4 -1.</_>
        <_>
          15 10 1 4 2.</_></rects>
      <tilted>0</tilted></_>
    <_>
      <rects>
        <_>
          14 12 2 2 -1.</_>
        <_>
          15 12 1 2 2.</_></rects>
      <tilted>0</tilted></_>
    <_>
      <rects>
        <_>
          14 19 2 5 -1.</_>
        <_>
          15 19 1 5 2.</_></rects>
      <tilted>0</tilted></_>
    <_>
      <rects>
        <_>
          14 19 7 2 -1.</_>
        <_>
          14 20 7 1 2.</_></rects>
      <tilted>0</tilted></_>
    <_>
      <rects>
        <_>
          14 21 3 3 -1.</_>
        <_>
          15 21 1 3 3.</_></rects>
      <tilted>0</tilted></_>
    <_>
      <rects>
        <_>
          15 3 2 6 -1.</_>
        <_>
          15 5 2 2 3.</_></rects>
      <tilted>0</tilted></_>
    <_>
      <rects>
        <_>
          15 3 8 6 -1.</_>
        <_>
          15 3 4 3 2.</_>
        <_>
          19 6 4 3 2.</_></rects>
      <tilted>0</tilted></_>
    <_>
      <rects>
        <_>
          15 3 5 18 -1.</_>
        <_>
          15 12 5 9 2.</_></rects>
      <tilted>0</tilted></_>
    <_>
      <rects>
        <_>
          15 5 6 4 -1.</_>
        <_>
          15 5 3 2 2.</_>
        <_>
          18 7 3 2 2.</_></rects>
      <tilted>0</tilted></_>
    <_>
      <rects>
        <_>
          15 8 2 6 -1.</_>
        <_>
          15 10 2 2 3.</_></rects>
      <tilted>0</tilted></_>
    <_>
      <rects>
        <_>
          15 9 3 5 -1.</_>
        <_>
          16 9 1 5 3.</_></rects>
      <tilted>0</tilted></_>
    <_>
      <rects>
        <_>
          15 9 3 6 -1.</_>
        <_>
          16 9 1 6 3.</_></rects>
      <tilted>0</tilted></_>
    <_>
      <rects>
        <_>
          15 10 2 6 -1.</_>
        <_>
          15 12 2 2 3.</_></rects>
      <tilted>0</tilted></_>
    <_>
      <rects>
        <_>
          15 17 3 7 -1.</_>
        <_>
          16 17 1 7 3.</_></rects>
      <tilted>0</tilted></_>
    <_>
      <rects>
        <_>
          16 2 2 22 -1.</_>
        <_>
          16 13 2 11 2.</_></rects>
      <tilted>0</tilted></_>
    <_>
      <rects>
        <_>
          16 2 6 4 -1.</_>
        <_>
          16 2 3 2 2.</_>
        <_>
          19 4 3 2 2.</_></rects>
      <tilted>0</tilted></_>
    <_>
      <rects>
        <_>
          16 3 6 4 -1.</_>
        <_>
          16 3 3 2 2.</_>
        <_>
          19 5 3 2 2.</_></rects>
      <tilted>0</tilted></_>
    <_>
      <rects>
        <_>
          16 4 6 4 -1.</_>
        <_>
          16 4 3 2 2.</_>
        <_>
          19 6 3 2 2.</_></rects>
      <tilted>0</tilted></_>
    <_>
      <rects>
        <_>
          16 5 1 6 -1.</_>
        <_>
          16 7 1 2 3.</_></rects>
      <tilted>0</tilted></_>
    <_>
      <rects>
        <_>
          16 8 1 9 -1.</_>
        <_>
          16 11 1 3 3.</_></rects>
      <tilted>0</tilted></_>
    <_>
      <rects>
        <_>
          16 8 6 6 -1.</_>
        <_>
          18 8 2 6 3.</_></rects>
      <tilted>0</tilted></_>
    <_>
      <rects>
        <_>
          16 8 6 9 -1.</_>
        <_>
          18 8 2 9 3.</_></rects>
      <tilted>0</tilted></_>
    <_>
      <rects>
        <_>
          16 9 3 5 -1.</_>
        <_>
          17 9 1 5 3.</_></rects>
      <tilted>0</tilted></_>
    <_>
      <rects>
        <_>
          16 9 6 5 -1.</_>
        <_>
          18 9 2 5 3.</_></rects>
      <tilted>0</tilted></_>
    <_>
      <rects>
        <_>
          16 15 6 4 -1.</_>
        <_>
          16 15 3 2 2.</_>
        <_>
          19 17 3 2 2.</_></rects>
      <tilted>0</tilted></_>
    <_>
      <rects>
        <_>
          17 3 4 4 -1.</_>
        <_>
          17 3 2 2 2.</_>
        <_>
          19 5 2 2 2.</_></rects>
      <tilted>0</tilted></_>
    <_>
      <rects>
        <_>
          17 4 4 4 -1.</_>
        <_>
          17 4 2 2 2.</_>
        <_>
          19 6 2 2 2.</_></rects>
      <tilted>0</tilted></_>
    <_>
      <rects>
        <_>
          17 4 6 6 -1.</_>
        <_>
          17 4 3 3 2.</_>
        <_>
          20 7 3 3 2.</_></rects>
      <tilted>0</tilted></_>
    <_>
      <rects>
        <_>
          17 5 4 4 -1.</_>
        <_>
          17 5 2 2 2.</_>
        <_>
          19 7 2 2 2.</_></rects>
      <tilted>0</tilted></_>
    <_>
      <rects>
        <_>
          17 8 3 6 -1.</_>
        <_>
          18 8 1 6 3.</_></rects>
      <tilted>0</tilted></_>
    <_>
      <rects>
        <_>
          17 8 6 8 -1.</_>
        <_>
          19 8 2 8 3.</_></rects>
      <tilted>0</tilted></_>
    <_>
      <rects>
        <_>
          17 10 6 7 -1.</_>
        <_>
          19 10 2 7 3.</_></rects>
      <tilted>0</tilted></_>
    <_>
      <rects>
        <_>
          18 4 4 4 -1.</_>
        <_>
          18 4 2 2 2.</_>
        <_>
          20 6 2 2 2.</_></rects>
      <tilted>0</tilted></_>
    <_>
      <rects>
        <_>
          18 4 4 6 -1.</_>
        <_>
          18 4 2 3 2.</_>
        <_>
          20 7 2 3 2.</_></rects>
      <tilted>0</tilted></_>
    <_>
      <rects>
        <_>
          18 5 4 4 -1.</_>
        <_>
          18 5 2 2 2.</_>
        <_>
          20 7 2 2 2.</_></rects>
      <tilted>0</tilted></_>
    <_>
      <rects>
        <_>
          18 9 6 7 -1.</_>
        <_>
          20 9 2 7 3.</_></rects>
      <tilted>0</tilted></_>
    <_>
      <rects>
        <_>
          18 11 4 8 -1.</_>
        <_>
          18 11 2 4 2.</_>
        <_>
          20 15 2 4 2.</_></rects>
      <tilted>0</tilted></_>
    <_>
      <rects>
        <_>
          19 9 3 2 -1.</_>
        <_>
          20 9 1 2 3.</_></rects>
      <tilted>0</tilted></_>
    <_>
      <rects>
        <_>
          19 9 5 3 -1.</_>
        <_>
          19 10 5 1 3.</_></rects>
      <tilted>0</tilted></_>
    <_>
      <rects>
        <_>
          19 14 4 8 -1.</_>
        <_>
          19 14 2 4 2.</_>
        <_>
          21 18 2 4 2.</_></rects>
      <tilted>0</tilted></_>
    <_>
      <rects>
        <_>
          19 15 4 2 -1.</_>
        <_>
          21 15 2 2 2.</_></rects>
      <tilted>0</tilted></_>
    <_>
      <rects>
        <_>
          20 4 4 6 -1.</_>
        <_>
          20 6 4 2 3.</_></rects>
      <tilted>0</tilted></_>
    <_>
      <rects>
        <_>
          20 8 3 8 -1.</_>
        <_>
          21 8 1 8 3.</_></rects>
      <tilted>0</tilted></_>
    <_>
      <rects>
        <_>
          20 9 4 15 -1.</_>
        <_>
          22 9 2 15 2.</_></rects>
      <tilted>0</tilted></_>
    <_>
      <rects>
        <_>
          20 11 4 6 -1.</_>
        <_>
          20 13 4 2 3.</_></rects>
      <tilted>0</tilted></_>
    <_>
      <rects>
        <_>
          20 12 3 2 -1.</_>
        <_>
          20 13 3 1 2.</_></rects>
      <tilted>0</tilted></_>
    <_>
      <rects>
        <_>
          20 12 4 3 -1.</_>
        <_>
          20 13 4 1 3.</_></rects>
      <tilted>0</tilted></_>
    <_>
      <rects>
        <_>
          21 8 3 3 -1.</_>
        <_>
          21 9 3 1 3.</_></rects>
      <tilted>0</tilted></_>
    <_>
      <rects>
        <_>
          21 9 2 9 -1.</_>
        <_>
          22 9 1 9 2.</_></rects>
      <tilted>0</tilted></_>
    <_>
      <rects>
        <_>
          21 10 3 3 -1.</_>
        <_>
          21 11 3 1 3.</_></rects>
      <tilted>0</tilted></_>
    <_>
      <rects>
        <_>
          22 7 2 16 -1.</_>
        <_>
          23 7 1 16 2.</_></rects>
      <tilted>0</tilted></_>
    <_>
      <rects>
        <_>
          22 8 2 6 -1.</_>
        <_>
          23 8 1 6 2.</_></rects>
      <tilted>0</tilted></_>
    <_>
      <rects>
        <_>
          22 11 2 2 -1.</_>
        <_>
          22 12 2 1 2.</_></rects>
      <tilted>0</tilted></_></features></cascade>
</opencv_storage>
